digraph Tree {
node [shape=box] ;
0 [label="X[6] <= 0.5\nentropy = 0.959\nsamples = 623\nvalue = [385, 238]"] ;
1 [label="X[1] <= 2.5\nentropy = 0.782\nsamples = 215\nvalue = [50, 165]"] ;
0 -> 1 [labeldistance=2.5, labelangle=45, headlabel="True"] ;
2 [label="X[2] <= 26.5\nentropy = 0.258\nsamples = 115\nvalue = [5, 110]"] ;
1 -> 2 ;
3 [label="X[2] <= 23.5\nentropy = 0.42\nsamples = 47\nvalue = [4, 43]"] ;
2 -> 3 ;
4 [label="entropy = 0.179\nsamples = 37\nvalue = [1, 36]"] ;
3 -> 4 ;
5 [label="entropy = 0.881\nsamples = 10\nvalue = [3, 7]"] ;
3 -> 5 ;
6 [label="X[2] <= 56.5\nentropy = 0.111\nsamples = 68\nvalue = [1, 67]"] ;
2 -> 6 ;
7 [label="entropy = 0.0\nsamples = 62\nvalue = [0, 62]"] ;
6 -> 7 ;
8 [label="entropy = 0.65\nsamples = 6\nvalue = [1, 5]"] ;
6 -> 8 ;
9 [label="X[5] <= 23.35\nentropy = 0.993\nsamples = 100\nvalue = [45, 55]"] ;
1 -> 9 ;
10 [label="X[5] <= 7.762\nentropy = 0.947\nsamples = 82\nvalue = [30, 52]"] ;
9 -> 10 ;
11 [label="entropy = 0.702\nsamples = 21\nvalue = [4, 17]"] ;
10 -> 11 ;
12 [label="entropy = 0.984\nsamples = 61\nvalue = [26, 35]"] ;
10 -> 12 ;
13 [label="X[0] <= 360.0\nentropy = 0.65\nsamples = 18\nvalue = [15, 3]"] ;
9 -> 13 ;
14 [label="entropy = 0.985\nsamples = 7\nvalue = [4, 3]"] ;
13 -> 14 ;
15 [label="entropy = 0.0\nsamples = 11\nvalue = [11, 0]"] ;
13 -> 15 ;
16 [label="X[5] <= 7.91\nentropy = 0.678\nsamples = 408\nvalue = [335, 73]"] ;
0 -> 16 [labeldistance=2.5, labelangle=-45, headlabel="False"] ;
17 [label="X[5] <= 7.762\nentropy = 0.234\nsamples = 131\nvalue = [126, 5]"] ;
16 -> 17 ;
18 [label="X[0] <= 802.0\nentropy = 0.093\nsamples = 84\nvalue = [83, 1]"] ;
17 -> 18 ;
19 [label="entropy = 0.0\nsamples = 76\nvalue = [76, 0]"] ;
18 -> 19 ;
20 [label="entropy = 0.544\nsamples = 8\nvalue = [7, 1]"] ;
18 -> 20 ;
21 [label="X[0] <= 588.5\nentropy = 0.42\nsamples = 47\nvalue = [43, 4]"] ;
17 -> 21 ;
22 [label="entropy = 0.567\nsamples = 30\nvalue = [26, 4]"] ;
21 -> 22 ;
23 [label="entropy = 0.0\nsamples = 17\nvalue = [17, 0]"] ;
21 -> 23 ;
24 [label="X[2] <= 13.0\nentropy = 0.804\nsamples = 277\nvalue = [209, 68]"] ;
16 -> 24 ;
25 [label="X[2] <= 0.21\nentropy = 0.971\nsamples = 75\nvalue = [45, 30]"] ;
24 -> 25 ;
26 [label="entropy = 0.794\nsamples = 46\nvalue = [35, 11]"] ;
25 -> 26 ;
27 [label="entropy = 0.929\nsamples = 29\nvalue = [10, 19]"] ;
25 -> 27 ;
28 [label="X[1] <= 1.5\nentropy = 0.698\nsamples = 202\nvalue = [164, 38]"] ;
24 -> 28 ;
29 [label="entropy = 0.928\nsamples = 64\nvalue = [42, 22]"] ;
28 -> 29 ;
30 [label="entropy = 0.518\nsamples = 138\nvalue = [122, 16]"] ;
28 -> 30 ;
}
